{
  "version": "1.0",
  "layer_sizes": [
    784,
    128,
    128,
    94
  ],
  "weights": [
    [
      [
        0.06161685885182509,
        0.06628142270085294,
        -0.13085609421406194,
        0.1512830145887737,
        0.059580239488422275,
        -0.027441107302727672,
        0.016665647485668632,
        0.14269114434680633,
        0.12437667620958467,
        -0.11486840126056504,
        -0.15465958828640677,
        0.09153599471008378,
        0.11443532961349825,
        0.018693325651741862,
        -0.01743803052982447,
        0.036778961148938985,
        -0.007346788297365621,
        -0.08013100505412721,
        0.035261197292200834,
        -0.011780298634705217,
        0.08873140329048264,
        0.14665328336034297,
        0.09606899045324815,
        0.018263667395474373,
        0.0066921818877535,
        0.05660944937250561,
        -0.04916869481464569,
        0.020666624371312958,
        0.19950459254982905,
        0.0878680526181153,
        0.05741466591006982,
        -0.04318056275028684,
        0.001602146455202841,
        0.06717037980316222,
        0.0163054370041965,
        -0.0033283641089716294,
        0.040585134650747194,
        0.03313832607089498,
        0.09613256555399675,
        -0.11414525276327431,
        -0.030844374019137744,
        -0.16281566324249616,
        0.024729748861972985,
        0.01914541117721424,
        -0.1260247456456336,
        -0.021268575031927223,
        -0.10015259836194713,
        -0.15372148348445866,
        -0.09130107215637787,
        -0.06829817936397216,
        0.058923758420978016,
        0.03034348559355161,
        0.03699742339933044,
        0.010918584263561478,
        0.024333514478033325,
        0.11471728906119724,
        0.18828094406159473,
        0.07328359056848376,
        -0.10392992660162768,
        0.03130810969267179,
        -0.03933586528318954,
        -0.08706974971059374,
        -0.019854017351575784,
        -0.0426256925986915,
        -0.0565243543187945,
        0.03986493345827512,
        0.015327801765009925,
        -0.13587152522229187,
        0.015746702393169776,
        -0.09597104055009857,
        0.038001162758651376,
        -0.10192955574103797,
        0.09628169733378572,
        -0.0037944694777443284,
        -0.10618099589493929,
        -0.1693548662152731,
        0.2477441809333448,
        -0.0027312077112271326,
        0.09482424653732104,
        -0.06891118207562667,
        -0.05697383476720916,
        0.03024288818668599,
        0.24635427816784933,
        -0.05853893859834177,
        0.1846619780345608,
        -0.0005828534456531853,
        -0.015894961772681505,
        0.09001462311455392,
        0.06807797689861811,
        -0.06675329746642869,
        0.13667424120570817,
        0.04478703500810012,
        0.05809309664732668,
        -0.0013374153433087245,
        -0.28177952702244113,
        -0.07993961875961622,
        0.32821609743680585,
        0.03989621456988883,
        0.17111042582927308,
        -0.11463930980937596,
        0.056135185123145956,
        0.009230909215299767,
        0.07067855080981104,
        -0.010473433864566273,
        -0.01591148557130841,
        0.029154865211201017,
        -0.12640568577974634,
        -0.04565679091520009,
        0.10383979245183231,
        -0.15223441929112355,
        0.24446572754301765,
        0.08137990990555828,
        0.07379509051656681,
        0.0781265563729444,
        0.04765098373619284,
        -0.0752052230140125,
        0.061806888842606454,
        0.015208690229160687,
        0.05046180452088979,
        -0.02738394441209377,
        0.046871990290642984,
        0.010106179538663261,
        0.0036320918061949203,
        -0.05898925197586358,
        0.11584973021546335,
        0.14281690999106017,
        -0.04637231341089904,
        0.04102351933806915
      ],
      [
        -0.08838275150116262,
        -0.12022890421339175,
        -0.0840411980552064,
        0.18962244514518603,
        0.04933046791607149,
        0.06805045990706028,
        -0.033360139575255986,
        0.12920545052230636,
        0.1430203031731777,
        0.07942393180622492,
        -0.019379141918471468,
        0.09043035375361749,
        -0.12511905259998063,
        -0.03904762062649639,
        -0.1952594698562493,
        0.07316104761274105,
        0.08081434716096873,
        -0.024533930120130762,
        -0.029160672589343677,
        -0.003905509671130879,
        0.03531408443164938,
        0.04034967827828073,
        0.06450226387703431,
        0.23915773354585174,
        0.1206422983504258,
        0.08118430201787784,
        0.1537341492848528,
        -0.06059618340926202,
        0.09752184844765373,
        0.21044919105283244,
        -0.1301888371223489,
        -0.14212498017081782,
        -0.1369094778496214,
        0.13463489889033603,
        0.016620819779309102,
        -0.16634827376630645,
        0.16928048198829235,
        -0.037820783251775854,
        0.013591846686140645,
        -0.17807706666490292,
        0.010784522247475892,
        -0.13315779482438542,
        -0.03135243593859072,
        0.015929488157769105,
        -0.06294896956482238,
        -0.15022424245556723,
        0.07581135779805802,
        0.229331460254345,
        -0.12133409458297885,
        0.00701285722942107,
        -0.028569453775568944,
        0.09585098180619084,
        0.07002803235423737,
        -0.10327524211334946,
        0.07269149617644725,
        0.03369690521756247,
        0.04495708500796397,
        0.027257502329835148,
        -0.023035732278108893,
        0.004912463076624545,
        0.09278122902534272,
        0.11686194387809469,
        0.0669349101429208,
        0.02252126799104942,
        0.0024331230883238176,
        0.13861305119007045,
        0.029011161219070377,
        -0.04978887885151977,
        -0.00911267722427768,
        -0.05759112094683221,
        0.1936031540750077,
        -0.011110970944059063,
        -0.05435027391826425,
        0.011686701887309924,
        -0.09858912129892623,
        0.028067577483613732,
        -0.08590063387578953,
        -0.0627855196441608,
        -0.04488320760901779,
        0.07348861158452365,
        0.055042729932134354,
        -0.13042805991060083,
        -0.006214356114576698,
        0.047345076321788145,
        0.029271048447231024,
        -0.1318855581380993,
        0.13837167417350704,
        0.1081550943954278,
        0.048448576558799396,
        0.1292353373282454,
        -0.08622814173587948,
        0.07398760087318826,
        -0.011224388794482773,
        -0.027254046507492663,
        -0.062350999983151474,
        0.09424052240455959,
        0.04519474028941464,
        0.06855187208622976,
        0.10654042158137568,
        0.01436751958960504,
        0.0736077311211621,
        0.07880115423169903,
        -0.024338049508969443,
        -0.0641460423681819,
        0.022155815023296718,
        -0.05665805086476364,
        0.004124024228750288,
        -0.017099680269644205,
        -0.14730860126214512,
        0.17503640873670562,
        0.17839279649334447,
        -0.01897088302217107,
        -0.01880583736336068,
        -0.027426053499896595,
        -0.0632811955074581,
        -0.09614612772871542,
        -0.08434340051031909,
        -0.041454983316853974,
        0.1448525132899112,
        -0.04983898082399879,
        0.04872157629164682,
        0.13917829799132705,
        0.05263704036878717,
        0.06946258453025074,
        0.013254864851823778,
        -0.01907808027826686,
        0.05010053517751183,
        -0.11974885416142492
      ],
      [
        0.03579410113669595,
        0.16191673749800767,
        -0.03206211903963707,
        0.05240635998884413,
        -0.06318040435080591,
        -0.02524039704780416,
        0.05933003530117188,
        0.0574026952624561,
        -0.006118809851228323,
        0.027103182166202253,
        0.018662754975908854,
        -0.07329538765231623,
        0.22533969452396588,
        0.04045933139987485,
        0.09581900637702542,
        0.052087983795214225,
        0.0748283449423334,
        0.08432210904221872,
        0.03833801542669461,
        0.0526076312910542,
        0.002016870148515876,
        0.12927968313823618,
        -0.05482782580488117,
        0.02174710952007865,
        0.16044104757296232,
        -0.07816240689687146,
        -0.15512767380271883,
        0.15056662620776012,
        0.09153621944918762,
        0.07930451669205718,
        0.09026190796931652,
        -0.024760472697309032,
        -0.011970579924774745,
        -0.01842979813962077,
        0.04573999003636593,
        0.05876126123474121,
        -0.04543267340311267,
        0.15469175450577916,
        0.08458301155989272,
        0.01432394722451762,
        -0.005909035415015459,
        -0.0018762347105629642,
        0.1408912026288473,
        -0.016404291653712273,
        0.18951112858409486,
        -0.027091569239701973,
        0.07649658943020554,
        -0.0743964149156706,
        0.07141564295973993,
        -0.03449666646152776,
        0.10258754621015923,
        -0.04292259737615253,
        0.07232409901001173,
        -0.0393811023637823,
        -0.015260309607600721,
        0.15777762681445107,
        0.042065095037458505,
        -0.025618296551950637,
        0.047143454209641125,
        -0.037255965063150966,
        -0.0001482035332372449,
        0.010944743344270005,
        0.022233033642888388,
        0.2714467722916335,
        0.1464761335373557,
        -0.0962924139355244,
        -0.048916584064507225,
        -0.08423361328936191,
        0.08094577205928336,
        0.07143988133391069,
        0.009236087545886068,
        0.0166915053144401,
        -0.1666513422424893,
        0.0065162356681648876,
        -0.015036338151648133,
        0.08557945276186053,
        -0.04470692650605035,
        0.0637438209896257,
        -0.004055040363845144,
        -0.07953734369896698,
        0.01843193524268568,
        0.07234349694732976,
        0.012420861754171165,
        -0.07217283805343037,
        -0.004357172652077424,
        0.20612459875706934,
        0.060915506134763944,
        0.09692757490381379,
        -0.06301279163344523,
        -0.036009216526830694,
        0.04198829368608609,
        -0.03579939480183156,
        -0.028111811287020914,
        0.1574246892673925,
        0.07415840629262696,
        -0.019138769054093997,
        0.00895465150166692,
        -0.05064208076886495,
        -0.11092051925065609,
        0.12144027557349699,
        0.030165560113795963,
        0.0004466519889920818,
        0.00997185907499065,
        -0.043557476596665715,
        -0.06345966376604342,
        -0.22568843230816438,
        -0.05586755191965567,
        0.0903148907569402,
        0.1709161564603367,
        0.18183465801543072,
        0.03897481055835007,
        0.13005632769438308,
        0.055401262708682925,
        -0.09334134878069886,
        0.08124933821474208,
        0.06183636043561684,
        0.09365487263581357,
        0.030436912632002835,
        0.09732786662629742,
        -0.22520557372135772,
        0.053754459379059066,
        -0.0723562073813821,
        0.08592589395288798,
        0.14734389818789909,
        0.10183243029157166,
        0.016289645433480285,
        -0.07001842621661572,
        0.001706567456945202
      ],
      [
        -0.015117883476407466,
        -0.14357638378390536,
        -0.11403570508221862,
        0.07606858460687987,
        -0.036351129222520547,
        -0.158285202341111,
        0.015684938361962664,
        -0.08604592235986337,
        0.03751276007445825,
        0.14620180952925063,
        -0.02421223746765215,
        0.07619194614010445,
        0.1302152310952557,
        -0.013958470157322243,
        -0.08084379520620393,
        -0.035584324742295476,
        0.07757489226868673,
        0.05949742707738863,
        -0.11968268016583311,
        0.2051468057611103,
        0.08181369212884583,
        0.07817330123413223,
        0.03625084983116076,
        0.015474052524031473,
        -0.020163715345766584,
        -0.10491556024301615,
        -0.0022302647176254326,
        0.09667363793096417,
        -0.07127956346996743,
        0.007905375747320696,
        0.18240570072343062,
        -0.21254877225129398,
        0.018433345825457106,
        0.06263304548093289,
        0.08181437971624596,
        -0.19100964139026397,
        0.03274387640322051,
        0.21891527345187733,
        -0.12183578659792507,
        -0.04141902643662488,
        0.18940290465667065,
        -0.09974184237855749,
        -0.004802211566841488,
        0.11055254867756413,
        -0.06025588382523749,
        -0.019589456338135428,
        -0.026625178815274597,
        0.2143421032919931,
        0.01909321120218116,
        -0.10262151705915018,
        0.0950151811025781,
        0.001728559189713728,
        0.04455480299042881,
        0.10159964786476704,
        -0.014450431357977288,
        0.03842499040649852,
        -0.037814706445951356,
        0.09943762241154283,
        -0.009735883381698049,
        -0.16426719211701504,
        0.10000510287998386,
        0.10817678052923951,
        0.12971399032120703,
        -0.06555434517216283,
        -0.1996687710546365,
        0.026530525657129062,
        -0.19056324285324036,
        -0.020352021379536362,
        -0.0951086258858648,
        -0.010983550730880193,
        0.015368875091415364,
        -0.10999905186130768,
        0.12910653921623075,
        0.0932384308574922,
        -0.09117256594517252,
        0.010428044727939626,
        -0.026742780534538792,
        -0.1010970898649885,
        0.04498468577960749,
        -0.11907061362240469,
        -0.02299799902024657,
        0.13893621010495588,
        0.053942117851186466,
        0.024256380618959593,
        -0.10647386138396508,
        -0.16017886951076235,
        0.2412481704232167,
        -0.09799250141319511,
        0.2244034476062504,
        -0.07926117973991326,
        0.07475652421825843,
        0.052404949070255745,
        -0.18699883715060137,
        -0.10590136300500115,
        -0.004576759331712794,
        -0.04654353630652804,
        0.0025672089018820396,
        0.0323570021159314,
        0.0312794659445158,
        0.09530436660224119,
        0.06426677696387596,
        0.1872277294819491,
        0.0687467731362626,
        -0.11945585521214086,
        -0.08562149712756666,
        -0.07844218930370306,
        0.14729999360161325,
        0.2134412568072917,
        -0.008357807016318903,
        0.005868378088409839,
        0.017026764350238564,
        -0.045476791122818896,
        0.03946986361186563,
        0.0023219747167706733,
        0.09912557192831013,
        0.023924264694937185,
        0.0371085330667806,
        -0.06474167620572568,
        -0.07076010662918723,
        0.03138767829132904,
        -0.0760657546344769,
        -0.025204773388011314,
        0.08927240288481594,
        -0.04043564959847853,
        -0.14327019193846813,
        -0.06088421987836471,
        0.026287736261646426,
        0.023400230790663334
      ],
      [
        0.025319278582514298,
        0.008384250571518675,
        0.1685182176037067,
        0.06174484780499685,
        0.043151527980126274,
        -0.031951453451888344,
        -0.06183074368949324,
        -0.14254835255362147,
        -0.05548489479387747,
        0.07244600379406196,
        -0.013927063876959942,
        0.0326923786077323,
        -0.0160137062909202,
        0.09398801254733068,
        0.2863149409766394,
        -0.008108809005356026,
        -0.07176115011426207,
        0.06381994198934378,
        0.09350783292523164,
        0.06042542076483382,
        0.029785087059270864,
        0.09265886237233044,
        0.16911410507165522,
        -0.04568624434275568,
        -0.17322982527900244,
        0.05984355900734897,
        -0.017453034026928705,
        -0.11296857310255086,
        -0.171652651754483,
        -0.021501638001852952,
        -0.0880651272597835,
        0.06317560341751204,
        0.026912773315194278,
        0.1996817233832553,
        -0.10153015374368303,
        0.08441163333267367,
        0.08617061803421056,
        0.02237199561830191,
        0.04482449264118956,
        0.13829103950983276,
        0.06307798542654208,
        -0.08651341064394345,
        0.14151533721649218,
        0.007500930297688154,
        0.001849210302033623,
        0.032409644287604726,
        0.019376163129901314,
        -0.06928785266375029,
        0.004505376368662832,
        0.019455557376491163,
        -0.01129296936369428,
        -0.04007870527590725,
        0.02884296837028113,
        0.21148807791030758,
        -0.09836991162526756,
        0.12224610743488129,
        0.08731828483987343,
        0.028651551106164897,
        -0.015086467409180312,
        -0.09882404846087041,
        0.052658121956674235,
        0.10864328368339568,
        -0.014871090699596388,
        -0.013480295936187239,
        -0.05353025885926699,
        0.1962192804840519,
        0.06893352689394988,
        0.004666340950897899,
        -0.13198816712188136,
        -0.09582405469389989,
        0.09461152823726528,
        -0.14250535503002987,
        -0.16503542049831588,
        0.16210227391179963,
        -0.052386358616134644,
        0.1403316093736254,
        -0.06444838851611144,
        -0.057276294912361025,
        0.009934758778744194,
        0.07321993525988967,
        0.07961460848577355,
        0.051219392291733785,
        0.12562653841145938,
        0.26191481397651023,
        0.06555277958011776,
        0.010580624580638118,
        -0.03597292109071103,
        0.217228344320676,
        -0.03172821091033381,
        -0.063863304372894,
        -0.198291248147205,
        0.13651288880527618,
        -0.05479088915700223,
        -0.08016329673171331,
        -0.07581122318696587,
        0.10153687420939699,
        0.1761366429095024,
        -0.1960882683637493,
        -0.008346035888118154,
        -0.020618147504259946,
        0.14561478266494352,
        0.1612368718403538,
        0.08447320786050676,
        0.1377832607357327,
        0.09487340779568794,
        -0.0321588609926488,
        0.04004935092635396,
        -0.027133206443754002,
        0.05874425464747774,
        -0.011672720079410798,
        -0.07677168276254731,
        -0.09849684255712142,
        0.02220165144052113,
        0.15345679719640745,
        0.034241743461758005,
        0.05122065829604877,
        0.1015887403723843,
        -0.009199431785180685,
        -0.071623548765333,
        0.046814174077207116,
        0.023263688946125415,
        0.11364074105288527,
        -0.0525157633291393,
        0.05306730775408381,
        0.06752547738059021,
        0.13802294928394407,
        -0.0289733593745303,
        0.031390291811782066
      ],
      [
        0.16996710358641703,
        -0.14293842400262163,
        0.0006474088707656543,
        0.10745143148263786,
        -0.03917938167952231,
        -0.14284747809779455,
        0.003176434496333281,
        0.1123877654209873,
        0.01666456114511915,
        0.08186953072606007,
        -0.00197390203921458,
        -0.04675618080465204,
        0.1192129621698339,
        0.07057619101395479,
        0.036667384839827705,
        -0.2462254121951884,
        0.10704466642722259,
        0.03434172438064386,
        0.07115363477767225,
        -0.0978464639488733,
        0.09414900606564038,
        -0.023892796215169133,
        0.13034220601903876,
        0.01227500275927596,
        0.045464755702272396,
        -0.052377879742525335,
        -0.07326793361142801,
        0.0790420374202711,
        -0.0932418112588811,
        -0.030969426392259712,
        0.11792640033570916,
        -0.16044178469335432,
        0.03184096482949576,
        0.10031153802653105,
        0.06339457492095546,
        0.07194949512488838,
        0.08737595293096774,
        0.12179299976350291,
        0.04679231715980937,
        0.27390128935604197,
        0.059274926063119494,
        0.1454781931229863,
        0.157607211583551,
        0.10229566822337371,
        -0.004790640930614868,
        0.08443001174362377,
        -0.01636983141812034,
        0.035955571146010085,
        0.029424566953435552,
        0.05329582344809259,
        -0.11776485322899793,
        -0.15157559658917608,
        0.04089762511875775,
        0.04758407834653356,
        -0.00331209327590772,
        -0.015021492034865202,
        -0.09872162936825547,
        0.005412901553704094,
        -0.18628030172838994,
        0.1545580254800721,
        -0.09991783156570046,
        0.03140504615987576,
        -0.023214372041755877,
        0.09165852176641119,
        -0.10124336703043703,
        0.0373644433091107,
        0.0034373336912580685,
        -0.1600310724640553,
        0.0334572690959361,
        0.028618632188896067,
        -0.014636325608886782,
        0.07089353442474018,
        -0.02668630979932666,
        0.010677140291541641,
        -0.09701461215469274,
        -0.02045171901284425,
        -0.011977733201394095,
        0.04363288110432174,
        -0.10072616737607205,
        0.028687173089605233,
        0.10824560804271963,
        0.06309505052124083,
        0.02964963060145616,
        -0.030559761404791105,
        0.03590129180200021,
        -0.11355554919794901,
        0.13488454038503575,
        -0.051526831153371803,
        0.11680455680730555,
        0.008386330374593106,
        0.08437671823622014,
        -0.002365128666920001,
        -0.11448025528881363,
        0.051674462506892345,
        0.16798616932356034,
        0.10763880966506043,
        -0.06769501824536205,
        -0.026137113391938943,
        0.12543413032134018,
        0.04155388178855949,
        0.12819974605922094,
        0.04213439275872103,
        -0.06305648265318703,
        -0.09835250199371785,
        0.09169898024284973,
        -0.1603378444318696,
        -0.13183841046085237,
        -0.2278695510042674,
        0.056359560588592414,
        0.08337619378431929,
        -0.04041029800339189,
        0.16871849740745745,
        0.14858148586354755,
        -0.14036471171043685,
        0.0849763524388843,
        0.002690442301264014,
        0.022881343348679223,
        -0.006384573627765135,
        0.022756061728034856,
        0.06805191339667145,
        0.04382506039191026,
        -0.08778067922974646,
        0.17532165855607115,
        -0.004158015463768019,
        0.05769285561115073,
        -0.1512076322577025,
        0.21926419458530125,
        0.08256100818644758
      ],
      [
        -0.01149011080332003,
        0.06035060395464673,
        -0.00287892762969043,
        0.07878381688453694,
        0.22444618752626794,
        -0.046237233135418034,
        0.11730078296359148,
        0.05702039898203723,
        0.07422996883411861,
        0.12797757382669697,
        0.0709710923950885,
        -0.011034521511012016,
        0.022229974855561975,
        0.14535062787714614,
        0.04676922889749097,
        -0.2338000102205709,
        0.00917686853970689,
        0.02360390617114638,
        0.14759704062805196,
        -0.007437719642301274,
        0.01723170162229498,
        -0.007119892549710404,
        -0.04252717167307003,
        0.1813669354270122,
        0.06218445772031595,
        0.1151761948174852,
        0.08765286932532668,
        0.20594103974002004,
        0.09380385241957578,
        -0.056862924971789464,
        0.00009282236994091669,
        -0.23952701931205794,
        0.012839253693479694,
        0.06538821828694191,
        -0.04661272446259389,
        -0.03878983813407275,
        0.05314356945886517,
        -0.02503943720420606,
        0.08618715252926955,
        0.2035411751337362,
        -0.21886090044523865,
        -0.0064128852889120125,
        0.0772824649350328,
        0.005034042874577789,
        -0.12067696677676372,
        -0.04952981424940181,
        0.034718263076354054,
        -0.08810113349147702,
        0.007258602840929319,
        0.10539801384032169,
        0.026883303089304627,
        0.013876157034022712,
        -0.009397926201942606,
        0.06810557289153449,
        0.134030589458153,
        -0.01872807361004521,
        0.002794409008471282,
        0.0741310049286601,
        -0.029073816750869088,
        0.01842055595371182,
        0.019734318817838756,
        0.1917478298019755,
        0.024564210149346694,
        0.041636705559956806,
        -0.09075571357582347,
        0.03154211136219623,
        -0.1319964083116706,
        0.0018851281711177044,
        -0.0003963931385929572,
        -0.09636733815749864,
        0.03468012293324885,
        -0.04765296375503578,
        0.00639722072641102,
        -0.0020860281026910663,
        0.08689544066019582,
        -0.06729306924888069,
        -0.048592108129828795,
        0.04716410623494708,
        0.1504306320130831,
        -0.12103918617014545,
        0.0807937731739658,
        0.059668835241977025,
        0.09055525263095011,
        -0.08579827801399074,
        -0.03797274893374028,
        -0.07105842134531408,
        -0.10452041796429662,
        0.19725274591717012,
        -0.06967545536120327,
        -0.18050346929151798,
        -0.08667169967410193,
        0.021751137053758595,
        0.047919889961206844,
        0.14333185037564072,
        -0.11418439618361521,
        0.10342063992930674,
        -0.029583912159094918,
        -0.05631128969114757,
        0.08581732535810542,
        0.040986508383905614,
        0.03661710755972922,
        0.09564240062167345,
        -0.14503885722451262,
        0.1091874102911258,
        0.003529963133329987,
        0.05766904100318443,
        0.047329945299353186,
        0.08486390819357834,
        0.04842309492836864,
        0.14712578540252544,
        0.10277426208924066,
        -0.022041191149101413,
        -0.19508441704050145,
        -0.08439474983727442,
        -0.016929691363330876,
        0.1266279412241771,
        -0.009186682378740162,
        -0.09910503229259182,
        -0.03470593298887816,
        -0.04291686146281342,
        -0.12969427030833755,
        -0.18330696980800842,
        0.08510590115208629,
        0.00815689819392901,
        0.04437223707346656,
        -0.08515309527198835,
        -0.07105123429660695,
        0.04987233576813335
      ],
      [
        -0.15592976817282767,
        0.031703840375922596,
        0.1022620652713078,
        0.03557858980686698,
        -0.08155482376016403,
        0.10135152711414415,
        0.09166613336715382,
        0.007949111734750184,
        -0.006034452215732743,
        -0.11977222292239248,
        -0.028114075794871796,
        -0.0309921748525652,
        -0.1164612000934535,
        0.21031683115951047,
        0.10005886735909135,
        0.07081058759291435,
        0.2002388169395385,
        0.1392417678248223,
        -0.14067542018538776,
        0.024043724618392995,
        0.061818445690244264,
        -0.028081937541139045,
        0.1365498623281866,
        -0.07303226161881668,
        -0.03698732486812078,
        0.10207203782427256,
        0.10834155119047299,
        -0.05114195559685105,
        0.17243297671576793,
        0.2632658483569496,
        0.11132734311155103,
        -0.04398564947345497,
        0.0715232276451208,
        0.02228278500129805,
        -0.1993295739127338,
        0.09831907109739275,
        0.11219665557039903,
        -0.12292837781589887,
        0.20466434536396946,
        0.011806836051511114,
        -0.047610135392632404,
        -0.05061958143188414,
        0.01429211382493953,
        0.1872768181426288,
        -0.044877789143826945,
        -0.008321127664633004,
        -0.06311629720537758,
        -0.04490764804291431,
        0.0633420437915134,
        -0.16759299504342842,
        -0.1176675193943625,
        -0.01463161771116139,
        -0.19097420661632547,
        0.01799631315848193,
        0.008574520275830212,
        0.20876609800135182,
        -0.02608341875209802,
        -0.14614484018434004,
        0.11314130182549399,
        -0.0986299375262735,
        0.007901251635684805,
        0.06567126386229467,
        -0.04638720099774274,
        -0.0007064736934552,
        0.057608494075493726,
        -0.15592893085551282,
        -0.01632198013970532,
        0.011830668153759397,
        -0.07126082981749846,
        -0.006577536803218378,
        -0.1503918880041511,
        -0.08558453290452078,
        -0.06967538215543839,
        0.2035274874837364,
        0.03007809264494087,
        0.1201905131283946,
        -0.043654727138255564,
        -0.09124420396803339,
        0.059831243484372944,
        0.13962643507439093,
        -0.007214932699541284,
        -0.09615545205025633,
        -0.10580605841901009,
        -0.08841122594514683,
        -0.004984387290159318,
        0.19809917390298026,
        0.036353987898121345,
        -0.02262571903020557,
        0.13667931362660907,
        0.13392634091917188,
        -0.0543167968808992,
        -0.06171547926283129,
        0.09985436938366356,
        -0.12055433599374538,
        -0.15898708262316294,
        -0.08521206440924145,
        -0.13797157590944006,
        -0.06745157466372656,
        -0.07182668561918533,
        0.0633832832703862,
        0.11218624858449004,
        0.0555830313585292,
        -0.03495268132740751,
        0.030362366109687147,
        -0.02378927439612508,
        -0.23453134468972114,
        0.14670150252078396,
        -0.09013688307830063,
        0.054566359455402245,
        -0.06585249747498123,
        0.10179355212932589,
        0.03313667584041459,
        0.021667855056649685,
        0.005252494738439828,
        -0.004897901440349702,
        0.06878665146857439,
        0.11334652623305397,
        0.03847413783499746,
        -0.14353382328058548,
        -0.042099452818091,
        0.12124378794945805,
        -0.04464887896797587,
        0.0416395014216278,
        -0.08507784232501343,
        -0.1866976849658217,
        0.1302648229273459,
        -0.17284940221998035,
        -0.1823740401928047
      ],
      [
        0.07853707807779552,
        0.05044533656645978,
        0.1103750992939578,
        -0.06807482117883479,
        0.023721648512954913,
        -0.05214722084361768,
        0.05821898731742681,
        -0.0028742317119850266,
        -0.2210771932503505,
        0.18916409841647466,
        -0.08037676987742187,
        0.12567021465645767,
        0.10551777251035545,
        -0.11825488904061573,
        -0.049376792175415275,
        0.13681907039155355,
        -0.040459233813298044,
        -0.19736950993212526,
        -0.07713901851800999,
        0.05379281512385551,
        0.05030253989262463,
        -0.036123742589854055,
        -0.0318874753068096,
        -0.11008677829259203,
        -0.1696259879046218,
        0.09162786238557935,
        0.049680699363713714,
        -0.14948462995494474,
        -0.06224593234926952,
        0.14687910845983143,
        0.03531438261017351,
        -0.03443133676784263,
        -0.0727238535619646,
        0.043728682915195105,
        0.05601529184740235,
        -0.004499344211893522,
        -0.129713751100917,
        0.061538118248026526,
        0.09138593128971224,
        0.18213738956660833,
        -0.20457473998073739,
        0.006097784006005454,
        -0.053545158009433935,
        -0.05303186320248544,
        0.049193657587776295,
        -0.13356979221122586,
        0.07695648981549529,
        0.21710371252164437,
        -0.0020339655826097313,
        0.06496356918411501,
        0.00801303490852315,
        -0.22338675875311784,
        -0.02265060176374761,
        -0.019825881373346857,
        0.04557560242663705,
        -0.09815047023765754,
        -0.07693312264572237,
        -0.17260356373489866,
        -0.15707813333495946,
        -0.21208579037583647,
        0.12246959952441121,
        0.08663631920711412,
        0.006617649556170376,
        0.10831312682726593,
        -0.07688317679699695,
        -0.11225525334102418,
        -0.15746061264184383,
        0.0013121849552322775,
        0.20376773304470572,
        0.19009989351843865,
        0.010620300254419688,
        0.04828863165016298,
        -0.09994297792441019,
        0.07548187286923567,
        0.07107771954951127,
        0.04066172655358467,
        0.04732636169608523,
        0.08692951463716574,
        0.1018974459477037,
        -0.1390387981243914,
        0.1078416359113818,
        0.058509768003565034,
        0.1029860791602729,
        0.1814307064672032,
        0.12469834833593824,
        -0.08567798458588724,
        0.12508202565702525,
        0.20169962868199168,
        0.03986339932611949,
        0.06816475881157147,
        0.05183839027477743,
        -0.03655744912825873,
        -0.015897702522509872,
        0.10196601713753593,
        0.00113212140462535,
        0.007057534285606513,
        -0.08474097501254951,
        -0.03699080742768805,
        0.11874265590635158,
        0.03385989316674979,
        0.047650024202102306,
        -0.15049810209249684,
        0.05691335363535105,
        -0.1085501980922267,
        0.14985846987016024,
        0.028677205532137293,
        -0.1188559481141962,
        -0.011910435634576439,
        0.25655835461363613,
        0.024185248615638123,
        0.045328112181002314,
        -0.12466422257903635,
        0.03324084089028407,
        0.01898669729164305,
        0.031032609854279206,
        -0.14537244688380388,
        0.1367759418377507,
        0.059906158863056,
        0.0354722743868932,
        -0.06839211024706562,
        -0.14471674631449932,
        0.04455913988549206,
        0.012864360000403358,
        0.06513147511481149,
        -0.012937737823482747,
        -0.043110445658080504,
        0.08662715249587055,
        -0.08370174405275856
      ],
      [
        -0.08102692071907884,
        0.07704230650266786,
        0.14213840107726652,
        0.036815405716054454,
        -0.1540556410825361,
        -0.10618198761006294,
        0.07192735888200864,
        0.055702925259912925,
        0.08519743002628206,
        0.08800309327788196,
        0.01723103822588213,
        -0.023652656086989143,
        -0.005536119889925596,
        0.06128667250482462,
        -0.12808553225230926,
        -0.056488180139962485,
        0.054852569767619846,
        0.07006634347527926,
        0.03732580633217688,
        0.16617676100988046,
        0.02701269500268016,
        0.09749211379041907,
        -0.08184094410018004,
        -0.049641321686795234,
        0.009910363598905353,
        -0.17910911100547972,
        -0.10267903252823404,
        -0.04201709517087304,
        0.07462270534248219,
        0.10770996442648943,
        0.153870663356122,
        -0.004542009046023798,
        0.08146890865260056,
        -0.12444658935169182,
        0.0014836418168426245,
        0.04737065381807513,
        0.12740471053988148,
        0.16653172299376082,
        0.0820201253186859,
        -0.02278494347845477,
        0.2270459960961302,
        -0.16585713609692837,
        0.07869494596311148,
        0.002343126446713819,
        0.20250846060936975,
        -0.16712170472725746,
        -0.152340167387068,
        0.06944379212617528,
        -0.07030433876052544,
        -0.15948260143231674,
        0.08162983454926717,
        0.019623710367817113,
        -0.09049120886105742,
        0.038477604352712066,
        0.010267825871217003,
        0.072827120308569,
        0.07553138759116275,
        0.007404822369529381,
        -0.09845497753024302,
        0.09082189459026233,
        -0.060702569657824806,
        -0.055118128712426225,
        0.11701881438349745,
        0.030106549469533145,
        -0.11635223617454793,
        -0.22667920221550164,
        -0.08148918609138714,
        0.019779914377336234,
        0.047877497223895914,
        0.07418027349693103,
        -0.10616085087869433,
        0.12562837799141366,
        0.032504096438596454,
        -0.21233704483109525,
        0.03432039740797827,
        0.049249542618978216,
        -0.017083802792774667,
        0.059499532024348295,
        0.035545126520948746,
        -0.026926230075170927,
        -0.04913825538311246,
        -0.07822108858566394,
        0.06782817191043007,
        -0.04577348179753401,
        0.0021705702202877842,
        0.08579684640965826,
        0.046696934505488126,
        0.005189508424081697,
        -0.04797750584540619,
        -0.03423154462190971,
        -0.05012310112426229,
        -0.12194446933979626,
        0.020324611213340265,
        0.07024623797045708,
        0.062281684938704396,
        0.0051559538164271355,
        0.05267341441558514,
        0.11123116216300834,
        -0.1533080825934461,
        0.019040352427278938,
        0.10374570124699677,
        -0.16137006451348496,
        0.039232292838891306,
        -0.13962529344018368,
        -0.07469520798663198,
        0.1529070815668051,
        -0.10909516731957164,
        -0.04582809650712944,
        0.03412115353298029,
        0.05109303103878015,
        0.13812486090942502,
        0.18658595886522888,
        -0.12320837817455511,
        -0.09678691008197236,
        0.1870182505575146,
        -0.052733969073611414,
        -0.03801329079305933,
        0.028893524921447696,
        -0.0688428887316103,
        -0.04004939354624558,
        0.10376913329645493,
        0.17633431956341358,
        -0.09645436167564937,
        -0.03066772917863635,
        -0.052817666692171895,
        0.16123094347360703,
        -0.008227363141716328,
        -0.07573372814094348
      ],
      [
        -0.09957732721399201,
        -0.06252331942124086,
        0.07513146992359084,
        -0.031115671581572742,
        -0.030125830217770544,
        0.14662331320662259,
        0.04628572866734284,
        -0.00458476182748209,
        -0.0313149645815781,
        0.09564341157258174,
        -0.14560846152288884,
        -0.10567558626175126,
        0.041084179119584445,
        0.014598599592620928,
        0.15744313515684077,
        -0.06898345054527533,
        0.1639415371137846,
        0.2110764668114312,
        -0.016085238694759,
        -0.08461915938525903,
        -0.05409110554543478,
        0.09598810282349635,
        0.02803802736738663,
        -0.0667274551513142,
        0.07516516683942225,
        0.07375253408593045,
        -0.03838457513735724,
        0.007463614685206875,
        0.12717224012190445,
        0.046640461277116005,
        0.11051140822465584,
        -0.11469103757479443,
        -0.13042284027332765,
        0.045001398419537354,
        -0.09581364044703258,
        0.151408023999717,
        0.07905035587773762,
        0.07109444060191626,
        0.025277013113575712,
        0.09770151824255065,
        -0.09762941890282612,
        -0.11189928439037933,
        0.11222646010421936,
        0.1361952975646485,
        -0.0934320842353172,
        0.09251460406443177,
        -0.0696397520028176,
        0.12546206057993256,
        0.21161925472537987,
        0.0800784543981673,
        -0.0071658620214485455,
        -0.029847726023662178,
        -0.21767928163341504,
        0.03694258058255652,
        0.005043982210614853,
        0.07346881229477133,
        -0.027274682175308422,
        -0.033109717724329885,
        0.020042100289284194,
        -0.07365553236256893,
        -0.021364635129923915,
        0.10222993024413947,
        0.01095462651909522,
        -0.02574158998719615,
        0.07535060115334552,
        -0.012469924178014784,
        0.0020410751821643394,
        0.1717945035095678,
        0.06458087620996938,
        -0.015701391202737922,
        0.08309587197223631,
        -0.10692113431919234,
        -0.13685748679421625,
        0.0857398213873813,
        -0.028965393564309397,
        -0.00314368907816011,
        0.146957338664186,
        0.10675708678322963,
        0.07024960429337043,
        0.08021503198223114,
        0.052657572292393484,
        -0.177260363975024,
        0.07926092905834006,
        0.05324950532790166,
        -0.14527025322543352,
        -0.0771789520835374,
        -0.1294155543674065,
        0.06891654208990236,
        0.30715186743752315,
        0.02285679924425236,
        0.1257568907482588,
        -0.08106826391953018,
        0.1873940836537801,
        0.22693486290635198,
        -0.02489446653217279,
        0.017302508676419207,
        0.21057658505364577,
        -0.014072066859226962,
        -0.0016369700148333884,
        0.10443010097886035,
        -0.07037783163266104,
        -0.14189100245930328,
        0.09037304358885212,
        -0.06372685053783989,
        0.1175871746119546,
        0.13754685569853303,
        0.03627001346509635,
        0.042557166827887884,
        -0.17576082595931838,
        -0.06751347262600714,
        0.18403770581564532,
        -0.11390373155210894,
        -0.043601729814390575,
        0.056932584380176725,
        0.04851537588212016,
        0.11243065574047259,
        0.028922721161082215,
        0.11927733012855449,
        0.04383970464942539,
        0.251927036685436,
        0.014172950235049218,
        -0.12662563947734834,
        -0.13497335118273568,
        0.13286843685595698,
        -0.11647156180163404,
        -0.05409932782294932,
        -0.05646453304142787,
        0.16265976933684537
      ],
      [
        -0.02167323607960532,
        -0.010132458846318328,
        -0.013099507711686874,
        -0.0890505919213565,
        0.136169177219307,
        -0.14958671583257493,
        -0.03954863518563862,
        0.04788726971097873,
        -0.08096057949931502,
        0.15095589002281265,
        -0.29716827594750495,
        0.10280122149968549,
        0.009962632261269411,
        -0.001885694662449388,
        0.008216630197867725,
        0.1928990402269104,
        0.005798485311720293,
        0.09658576780242183,
        -0.039848245344608325,
        -0.0552884659528986,
        0.08667646433512004,
        0.053700219361117296,
        0.18340317172526407,
        0.033194438128920194,
        -0.1269428715199448,
        -0.14935194944233574,
        0.11057929604866674,
        -0.1260021957389411,
        0.04315707202319959,
        0.010350031797761111,
        0.027534692249912566,
        -0.1103384367826616,
        0.043570462245235184,
        0.03223493429663874,
        -0.03222604663903516,
        0.028298007980008373,
        0.08792910546789685,
        0.08338054641787832,
        0.026696824223894845,
        0.022590078902112527,
        -0.13435113180363362,
        -0.3042021180231335,
        0.02282350796182122,
        0.004012218955022898,
        -0.10819032249747176,
        -0.15673965422293334,
        -0.12420699578630902,
        0.10588829404089765,
        -0.0866974513060736,
        -0.026530158996876545,
        -0.05991398452019692,
        0.11959416546896948,
        -0.05262955584607233,
        0.08757239196621333,
        -0.05130685316222268,
        0.14105247821055542,
        0.008687256716240566,
        0.015552240220698092,
        -0.023625171826264033,
        -0.03352142917494304,
        -0.116518423475464,
        0.06325751267337745,
        0.05711943551778698,
        -0.07664843980456097,
        0.09450893153737187,
        0.09661971683770515,
        -0.09746512857043794,
        -0.15878881155058264,
        0.2133730316377635,
        -0.1291204347982833,
        0.027332347474866056,
        -0.03344253248799211,
        0.08822711374777184,
        0.04143202293164027,
        -0.01704482320138116,
        -0.08435840322730752,
        -0.03941928123383075,
        -0.0011878655243135483,
        0.0178094172362957,
        -0.004832334135828984,
        0.07368163019246332,
        0.08934345523347839,
        -0.13426834449177194,
        -0.029827905606115826,
        0.08187312166542202,
        0.13297793367466723,
        0.11089978500728816,
        0.2195678737134154,
        -0.08377448234403703,
        -0.1310229931785383,
        -0.027740807050390948,
        0.1675779347124972,
        -0.05001409179217388,
        0.05653519079893098,
        0.02727192724761596,
        0.017630516392964663,
        0.06989608213491232,
        -0.02249524391724872,
        -0.06641241017930148,
        -0.07504986213714175,
        -0.1176616859502425,
        0.09444265065981026,
        0.11008771299956877,
        -0.018248931134114854,
        -0.09759986311713911,
        0.1846042205615876,
        -0.2494202539286934,
        -0.19666359864321822,
        -0.004607621073071275,
        -0.10377714523397427,
        0.02502397290170744,
        -0.022628584974272482,
        0.019022200696495364,
        -0.02279290976305162,
        0.07077826246771296,
        0.10852978459092315,
        0.03310107185741425,
        -0.04908872825634391,
        -0.04826148944970863,
        0.15031012159539386,
        0.06257853425543738,
        -0.05980403364620851,
        0.01752580988211192,
        0.078171851221636,
        0.009599849272028378,
        0.0712055909564798,
        -0.07828579143903164,
        0.03023295737203431
      ],
      [
        -0.12435422687464792,
        -0.08067465906855661,
        -0.008534261693993375,
        0.07321374475206817,
        -0.08262964700260028,
        -0.07532160311158535,
        0.014416660810316947,
        0.19300013845990682,
        -0.07650764406908825,
        0.12898856345230647,
        0.13533466586767698,
        0.21236014773833922,
        0.13235656533334972,
        -0.04175919867049914,
        -0.13061822999916362,
        -0.0052328025979795295,
        -0.003909955281337042,
        -0.08380327845794991,
        0.2107288131360054,
        0.03014073536977446,
        0.0858673206063411,
        -0.05496140333059433,
        -0.04931710998727143,
        -0.13351815166891232,
        -0.14852011820205566,
        -0.25596719733111883,
        0.13487239608970164,
        -0.05553880815039157,
        0.12991509713639118,
        -0.016962359460672396,
        0.031676841045294016,
        0.06030794019714685,
        0.06787648227597792,
        -0.06452446591356585,
        0.09620000669908908,
        -0.09221987289068831,
        0.10430432719828665,
        -0.113638483925894,
        -0.02237252534312019,
        -0.04767618238865527,
        -0.03149412411654197,
        -0.0016083428552959478,
        0.09193859282119993,
        0.028509439795619422,
        -0.0746231907220745,
        -0.06624219764534846,
        -0.08704549409402627,
        -0.0025682481762475395,
        0.0791459342438417,
        0.11846677367730012,
        0.25721580750276657,
        -0.20817461130615125,
        -0.12503235743490113,
        -0.13508783321821372,
        -0.0951346369494271,
        -0.06677954918969001,
        -0.055412679314875986,
        0.06310140697666719,
        -0.17744108487498358,
        -0.15458638097593058,
        0.07935898622697034,
        0.01084029319398296,
        0.15671965193531887,
        0.030161321016244143,
        -0.13760371538345684,
        -0.04292419536468534,
        0.1323205674947769,
        -0.053636733233264386,
        -0.04832943701813183,
        -0.056781085675271535,
        0.01958175499476275,
        -0.06838943681941058,
        0.14170585516552978,
        -0.09480206762591781,
        0.23951072574957713,
        0.07264321871660274,
        -0.03236095602144364,
        0.06992418273191923,
        0.09421204667123763,
        -0.00453506097293144,
        0.028222370071798838,
        -0.12995280119443228,
        0.1459721498046143,
        0.028629604886988742,
        0.3493567285631484,
        -0.07780998600847466,
        -0.07098700858244994,
        0.23651437267114844,
        -0.026691123359914214,
        -0.11840004091877396,
        0.05295905576067007,
        0.02165816884202926,
        0.008128805678494897,
        -0.0005213843099806806,
        -0.07962061577787283,
        0.08057503212818187,
        0.1390689319407825,
        -0.07843470043419488,
        0.1496848212213255,
        -0.07401496011240942,
        0.04847152950345178,
        0.10909899468449583,
        -0.031832166432939915,
        -0.08750158039868398,
        0.11823509248585236,
        -0.17252660304647952,
        0.04488313389692391,
        0.00204013545996243,
        -0.03183146625930098,
        0.14455634137328113,
        0.09843846926532572,
        -0.04671530228236084,
        -0.06476662858830766,
        -0.1165321355946904,
        0.16226092015884203,
        -0.12599235982271817,
        0.13939971488308897,
        0.1336982951586441,
        -0.1142011080159613,
        0.011512555454974755,
        -0.0016314206492433864,
        0.07270539065421998,
        -0.04648847309943245,
        0.013876166044779458,
        -0.03793457480995322,
        0.11623351260188,
        -0.037168916133290326,
        -0.13004584748938758
      ],
      [
        -0.14389205816933848,
        -0.0672774895930915,
        0.050477052764442365,
        0.06463607500600908,
        -0.01778060100065797,
        0.022851004532195667,
        0.10121551957641382,
        0.08240351609551924,
        0.053001835242884904,
        -0.1301302390489401,
        0.04018229429816782,
        -0.05877731101759948,
        -0.15571195286341405,
        0.06147370187620334,
        0.1246886368458009,
        -0.09184632446552048,
        0.00306197995579622,
        0.09250366430841479,
        0.08296916586321373,
        -0.04029543772049678,
        0.006462516138104883,
        -0.005812696569060751,
        -0.10032217958781399,
        0.04794109632230852,
        -0.15590197183606352,
        -0.04496812993521406,
        0.013406912141433245,
        -0.009259544006380464,
        0.03354844656673535,
        -0.06862330447560565,
        -0.06119720861527568,
        0.022179744967487404,
        -0.014336388684359868,
        -0.019682339175633907,
        0.05425605809257046,
        -0.06503604353385356,
        -0.024216792191973365,
        -0.10829682597105073,
        0.1075921491630278,
        0.07125418984902497,
        -0.0341086625871758,
        -0.03587750430713057,
        -0.03699202358771515,
        0.0817774774182551,
        0.036158287524881906,
        0.08889325743179902,
        -0.1376601548293732,
        0.05111826890988024,
        0.048418315356894885,
        -0.1008969662946804,
        0.1314557702222483,
        0.21390733665974906,
        0.1362710398936671,
        -0.20440611967070105,
        0.0023604995882857208,
        0.06782340946406959,
        -0.22095139873665612,
        -0.1522200421018949,
        0.0977873222360394,
        0.11945541425179265,
        -0.08570624444625745,
        0.06471522305059131,
        0.12064003567035658,
        0.10890275638019757,
        -0.21441408330282913,
        0.010965723681678145,
        -0.14299274049270855,
        0.005462274327255546,
        -0.023625248481851237,
        0.15057322202306822,
        -0.08712939212590486,
        0.06408135618535046,
        -0.033401233908310894,
        -0.014602336191277147,
        -0.12765094046220393,
        -0.059292505326936945,
        -0.1788318019572406,
        0.050730269476014674,
        0.20958392181838575,
        -0.007807560853248107,
        0.01888560668042276,
        -0.09025341944583683,
        0.20154899985410218,
        0.0838525244524529,
        -0.18759880544682464,
        -0.017842037096894102,
        0.05593387743230902,
        -0.06833054003502671,
        0.06240647167580128,
        -0.01646591150029081,
        0.10702237021173494,
        0.004407838486800214,
        0.08927123454261462,
        0.03744688945389492,
        -0.24128869165037467,
        0.1274233383553444,
        0.07073858929376768,
        0.23948381680008896,
        0.06590429216611791,
        0.06188455691209654,
        -0.029698759997887007,
        0.015210985750259753,
        -0.11888768085400218,
        -0.08765952169273504,
        0.04875374845022241,
        -0.11922464093707827,
        -0.14351312826825516,
        -0.0969335779294353,
        -0.11260498687273282,
        0.007557231552187507,
        -0.05186877535097648,
        0.060985159488503894,
        0.06360841822804643,
        0.11623759974712644,
        0.03218027923620107,
        0.11157930327311079,
        -0.020036204001039618,
        0.07689242827766864,
        0.06066663202255422,
        0.18310418416207944,
        0.09049305342548448,
        0.06612390212715172,
        -0.0013600413475096192,
        0.05864680558154002,
        0.09895487113280119,
        0.15557848879430825,
        0.03003892326862129,
        0.0009351365725982933
      ],
      [
        -0.1217912915565159,
        0.0498888534918866,
        0.07664221474515034,
        0.07020729099619161,
        -0.10676479454359858,
        -0.06547572636269659,
        0.12270483141517353,
        0.0951600983165288,
        0.024692883039193394,
        0.06079131030129254,
        0.012236879769759203,
        0.05868430318410433,
        0.07471663746709405,
        0.009690113874912398,
        -0.11445922358970102,
        0.22197273764063247,
        0.08359584347508199,
        0.150244963350589,
        0.024423681692590272,
        -0.055183650852439606,
        0.06824194755590823,
        0.0075838246934487935,
        0.037421067300631175,
        0.07746481295267317,
        -0.03978046923708457,
        -0.1092464752546157,
        0.057196963303907195,
        0.0771069990656931,
        -0.08347206089661265,
        0.1414437027686433,
        -0.024621738476321677,
        -0.07368862294929247,
        -0.05790461038347452,
        0.14629789952770295,
        -0.08506849919484005,
        0.05475814357160707,
        0.09519331279657257,
        -0.015111024395554052,
        -0.14094003172457548,
        0.07396738106664956,
        -0.19733631367272084,
        -0.020426419352433157,
        -0.1608098326899186,
        -0.020692206402453714,
        0.13286572351048148,
        0.1319776277142248,
        0.019971980305717164,
        0.0401852706719485,
        -0.1142153395343307,
        0.01593226270897697,
        -0.11798289628813997,
        0.07456725772691257,
        0.13520971276937827,
        0.10705037328839084,
        -0.02137865867077092,
        0.06498117629557684,
        -0.0030741989139729605,
        -0.024368689143200447,
        0.05106188206890165,
        0.06140268628803818,
        -0.020943459460939413,
        0.1179945970109382,
        0.0008929373424539581,
        0.04974174461637958,
        0.016183367680930354,
        0.05138094241613867,
        0.03865323683554113,
        -0.0671177338431914,
        0.1549210896228101,
        -0.08006788816204478,
        0.05495550278104319,
        -0.16873106035651955,
        0.04240572482451704,
        -0.11558921641693558,
        -0.026634157089043126,
        -0.01839288900459369,
        0.05517247731505981,
        0.14613500897457884,
        -0.0074240456205626176,
        -0.06363450420795876,
        0.17644268889769443,
        0.06169858098806674,
        0.010778485550288992,
        0.03868440608919401,
        -0.07235705796587491,
        0.11302554120110501,
        0.3600571161387147,
        0.22429507906883073,
        0.12905693669699236,
        0.03357598241705979,
        0.06917456937705513,
        -0.04158395087259178,
        0.06061793369191946,
        0.07874215000289608,
        0.05814851981806797,
        0.03496274081765679,
        0.14529881210654028,
        0.09477270648957008,
        0.07629502659960319,
        0.07872961097145582,
        0.025861185039220223,
        -0.061156995187175336,
        -0.011711464278612794,
        0.16437296849597996,
        -0.020971377171771225,
        -0.12160976851570193,
        -0.18292590098699027,
        -0.2263786132641746,
        0.0373575084758503,
        -0.04508157251177482,
        0.09961969360655894,
        0.16607090725428303,
        0.10405364029272104,
        -0.05106596901065411,
        0.02620630813541035,
        0.14336902975884466,
        -0.03252811407596962,
        0.0431099349337934,
        -0.06766763516500066,
        -0.02715214730680264,
        -0.06577657811709155,
        0.004448059713016645,
        0.056190307297126804,
        -0.10239723260340779,
        -0.10352549315181422,
        -0.0936114284252564,
        0.05130202452172756,
        0.23398649798370014
      ],
      [
        -0.1961495466224332,
        -0.004034624836376217,
        0.08108770735763138,
        0.01612180002828466,
        -0.07211396287503763,
        -0.15125076260724182,
        -0.07702385110437694,
        -0.027932570676951426,
        0.03549872093325308,
        0.03565640795066451,
        -0.11358551249129871,
        -0.11761157259133197,
        -0.020803229629249846,
        0.1679673638676685,
        -0.009431991010496596,
        0.08349047238748318,
        0.12707797428261547,
        0.10631109728668824,
        -0.055262476110608874,
        -0.1683683648398828,
        0.13954258984545473,
        -0.11024604299790662,
        0.07831523970589895,
        0.10504183175918622,
        -0.15678813470164932,
        -0.04620485023884225,
        0.12107441865583582,
        0.1620919329396413,
        0.0847568615571837,
        -0.09891820887624267,
        -0.002785769282432047,
        -0.09804126408147834,
        -0.015187942224758097,
        0.11312921007067556,
        0.06791752766683419,
        -0.058331794173297404,
        0.05579090551598263,
        -0.05834820963008983,
        0.0645240279620937,
        0.03659581161794993,
        0.07719396355571952,
        -0.10895009549125091,
        -0.0082515912372027,
        0.03213970446419314,
        0.017028031932008175,
        0.03465405990922554,
        -0.024593861220326637,
        -0.033734768464569784,
        0.07563918697790195,
        -0.14031576203502313,
        0.22738285533526104,
        0.18944372353293937,
        -0.2240533685886704,
        0.04828997038229776,
        0.03299431888540683,
        -0.08511093472291759,
        -0.017627465625122254,
        -0.07923853003063727,
        0.12560387069507048,
        -0.11148873241620509,
        -0.08894899289827381,
        0.17838282871843072,
        -0.05631188254035895,
        -0.05599251036705151,
        0.025813729017785655,
        0.09420045651573902,
        -0.12599329052741767,
        -0.04278363069421044,
        0.09953387067946662,
        0.0055745456741391084,
        0.019860725406275197,
        -0.1692061287668513,
        -0.13454182792416203,
        0.13577355578835318,
        -0.03978832195494595,
        -0.09234399136004087,
        0.06594584269715287,
        -0.08618961836037634,
        0.23133672060388705,
        -0.10256251684367408,
        0.04298419999478647,
        -0.02438398500856276,
        0.03541284757536326,
        -0.08705734539862206,
        0.060909626444515606,
        0.019986508513244627,
        0.047330145819597824,
        -0.1861667795735144,
        0.08512300276688761,
        -0.005758940590354739,
        -0.15015145636854316,
        -0.03769708260255551,
        0.15248799921910075,
        -0.016529484757584367,
        -0.03364053290203055,
        0.07959665854917819,
        -0.007171726672508382,
        -0.08689492028457835,
        -0.05683048694245935,
        -0.18199679710019348,
        0.17628860450055003,
        -0.1599661017490959,
        -0.06425120629968796,
        -0.1414228790856116,
        0.08528627616336337,
        0.02080103426079703,
        -0.04872693890282329,
        0.03692394913456827,
        -0.10381024530606957,
        -0.09164830807208912,
        -0.056911732625378464,
        0.22247960665991928,
        0.014240137971648982,
        0.14665208617161574,
        0.061646810009566774,
        0.18088058469217558,
        0.05697919748630565,
        -0.04637128865335798,
        -0.10645102416142109,
        -0.06238647240295374,
        0.14369960955724925,
        -0.09747276830685439,
        0.15238548881651304,
        -0.0172933958110344,
        -0.012922192393210718,
        -0.007516212216186082,
        -0.003139866681995791,
        0.02943811850056521
      ],
      [
        0.10794592221407094,
        -0.02839571527183491,
        -0.006675744787098822,
        -0.06467450770930443,
        0.012670353278803094,
        -0.10479010304085429,
        0.11204395351644719,
        0.030700417215606787,
        -0.1789095348734712,
        0.2537723406008023,
        0.09698139540678513,
        0.05198036622151201,
        0.07588034250401016,
        0.10563601197166478,
        0.1236935144656677,
        -0.1000701709414452,
        0.08775824979259308,
        0.02662254973475738,
        0.16306224103014483,
        0.07033458870516807,
        -0.004606570946987538,
        -0.1244684129341984,
        0.07335044907651167,
        0.008566029406992247,
        0.020184831888986118,
        0.013156882298747752,
        0.15046309593359802,
        -0.003362474056234497,
        0.10981173966457432,
        -0.025252908165804406,
        0.034029475142649444,
        -0.09948813721224832,
        0.10387085616550616,
        -0.06081383885457707,
        0.10750722389909552,
        -0.1375102552728908,
        -0.022922342123237637,
        0.09182313125812291,
        0.0025310462153054518,
        0.0499895025600543,
        0.16951712092923216,
        -0.07833062141840379,
        -0.01839890117304246,
        0.17509138068430563,
        0.14769294849205658,
        0.10228246806199713,
        0.012527035970034711,
        -0.03581147017610832,
        -0.16633502286856988,
        -0.1405920311113154,
        -0.03622483997964339,
        0.03029258748300742,
        0.028175106981400952,
        0.21778606994746386,
        -0.06801486333976503,
        -0.12753807815021606,
        0.041225876148715764,
        0.0174140283806407,
        -0.09915570910829304,
        -0.08520361764193368,
        -0.17559723951297856,
        -0.16073415633087207,
        -0.026319702687793725,
        -0.031478716896853456,
        -0.0035262279956376798,
        -0.028340203249852668,
        -0.20160767855831763,
        0.12154812208874126,
        -0.06909713244546183,
        0.017726599096149064,
        -0.10561390298296902,
        -0.018380122214378448,
        0.01743212819060557,
        -0.021838867174449928,
        0.052616639446962266,
        0.03307889864310623,
        -0.1923223650035894,
        0.09371682507471281,
        0.06349912865606035,
        -0.20778754617521983,
        0.052375302171157934,
        -0.004687539119105584,
        -0.0053886005686136764,
        0.022423565868612955,
        0.0726646727660834,
        0.004711805657379991,
        0.0018941736988747212,
        0.003007536879263603,
        0.18493000460065928,
        -0.0855510540719667,
        -0.014030325856279877,
        -0.09096766048348032,
        0.06647465276005514,
        -0.03005028886564647,
        0.22917158011749403,
        0.011982444483327616,
        0.02742847340303504,
        0.08335489921767865,
        0.16411234049440457,
        -0.09727100808037702,
        -0.024920838124784645,
        -0.14145914511932517,
        -0.08319803299076409,
        -0.16168121373877348,
        0.012893193672156859,
        -0.04449210842381565,
        -0.2297405645741312,
        -0.19574461243226043,
        -0.043795405758610934,
        0.06554476634004494,
        0.03665969761589746,
        0.1772986266712238,
        0.1881740777211933,
        -0.18688454143697175,
        0.07762076729689958,
        -0.10706084063998683,
        -0.0033370758150168245,
        -0.11847435239632939,
        0.026969493073333663,
        0.1605981300669888,
        -0.020383956581302883,
        0.03523847256734281,
        0.17197598736866873,
        -0.09239394757510086,
        0.14106474865531013,
        -0.02615651816409766,
        -0.05046092705900241,
        -0.1328284444288796
      ],
      [
        -0.10338778233501887,
        0.15822360808297248,
        0.038708562433406216,
        0.12170236517782192,
        0.09072798507828822,
        -0.05336773279843552,
        0.055851917843000476,
        -0.05280331532283364,
        -0.039121978863414744,
        -0.040395807945136905,
        -0.08193012186444204,
        -0.11265586779551418,
        -0.003977758998451651,
        -0.019882150930485076,
        -0.004255758038223814,
        0.15679601697651657,
        -0.08868870723417395,
        -0.004462986750107167,
        0.09493909450598975,
        0.02241733542220176,
        0.04576001528095114,
        0.09662270174571329,
        0.06528802242659187,
        0.03369512910245209,
        0.040167099592052835,
        0.19189280920415785,
        0.12515179376908522,
        0.031024950742828704,
        -0.026800549090367488,
        0.1811178693533133,
        -0.04978392043766837,
        0.03671374254595361,
        0.045061405121764556,
        0.009718096028683967,
        0.09901239383171258,
        0.11910825103744101,
        0.004688404902084464,
        -0.01127276656341816,
        0.07409215568134107,
        -0.014757698969820788,
        0.10982930420615068,
        -0.020343053437272177,
        0.2441153826219434,
        0.01163797974844385,
        -0.04557994901155738,
        0.08664457832410362,
        -0.10387215309741485,
        -0.05981163470399892,
        -0.0435564718467193,
        -0.09957501722150776,
        -0.052219963931264955,
        -0.0637330404834769,
        -0.018827420328638732,
        0.18791021457433385,
        0.000051808548727855617,
        -0.038160047593160225,
        0.2023596498605978,
        -0.020988552329426625,
        -0.11246106014435206,
        -0.16355005728017286,
        -0.034540921269057966,
        0.043076923249452066,
        0.10767677946581328,
        0.0046007005943351905,
        0.15242945341609831,
        -0.004512862161770927,
        -0.1306262269500011,
        0.05874984347769482,
        0.03073146298426078,
        0.019203976590409864,
        0.06262341585179097,
        0.04463245659418296,
        -0.11557957104500675,
        0.026923198787241098,
        0.10051819325820795,
        -0.026282825831856628,
        0.07671048164956336,
        0.16133904427095752,
        0.049432632973298564,
        -0.09076042423308976,
        0.10189268756978588,
        -0.014838488759620351,
        -0.1075403397830365,
        -0.11945950567336545,
        -0.018330110769447776,
        0.022269187284383388,
        -0.1687038615317538,
        0.029048678268854072,
        0.10988593455241032,
        0.16762758149234944,
        -0.02833278000797986,
        0.09456556760063671,
        -0.028237776621740315,
        -0.018597942739121524,
        0.12878151382585667,
        0.19641635040752067,
        0.07802459910025447,
        -0.013736775475683593,
        -0.024455222269260977,
        0.14210968535941942,
        -0.0068406325656349375,
        0.0017466403505868387,
        -0.02946180149504216,
        -0.014335714837648205,
        0.13785150616361477,
        -0.06715763816291094,
        -0.04125425665599995,
        -0.046524582020417135,
        -0.07919626668943529,
        0.01887574089964804,
        0.16586977396601332,
        -0.0034906292552752396,
        0.02717252512970411,
        0.0725861568434841,
        0.12569517777725878,
        -0.11881453864285278,
        0.10305397530481655,
        -0.10025046380078748,
        0.20212642834565409,
        0.1807576876008778,
        0.17745348400391805,
        0.019210074856073546,
        0.06334166263975931,
        -0.2043619404056228,
        0.2187945357287656,
        0.024287532409551196,
        -0.0031549152951970798,
        0.012508105885508764
      ],
      [
        0.12106228242585007,
        -0.030436472038363516,
        0.09735827377716659,
        -0.11605472660242404,
        -0.10843063490698177,
        0.06293068363691588,
        -0.0873090311297206,
        0.042885304526070624,
        0.08490448298495767,
        -0.1119279386768451,
        -0.1338752900606513,
        -0.04280850193324538,
        -0.08164965118623581,
        0.18331007141944144,
        0.0847166607323085,
        -0.02589378107941605,
        -0.017711235394643032,
        0.12513622285609027,
        0.0886751899322974,
        0.05167172489668431,
        0.08845894563570411,
        -0.04443673803949535,
        -0.006073835334092639,
        0.03967617320634132,
        0.1737852349735579,
        0.0906178081406085,
        -0.08234843075191214,
        0.06406957438596002,
        0.09296355912318974,
        -0.0303208014585021,
        -0.14617149880508748,
        -0.01922106261427116,
        0.01730874899140593,
        -0.03275973765495545,
        -0.10471559935991537,
        -0.12647207871749655,
        0.12143286490579201,
        0.10401088382921778,
        0.06419318057950066,
        0.04946977889057218,
        0.08775684258815421,
        -0.05386377585756652,
        -0.15022816897083577,
        0.018134431960750094,
        0.2061712437653732,
        0.11976945656308585,
        0.04652178937382751,
        -0.14503854982769077,
        0.004867403219910303,
        -0.05853963537028197,
        -0.07804546968314817,
        0.13992313751110647,
        0.02300357274641406,
        0.011493307605425402,
        0.1575544305666397,
        0.06909510296871538,
        0.09841439854539633,
        0.031151770730555212,
        0.17553054963410966,
        0.006341052401947014,
        0.14643897799594682,
        -0.055126415880492205,
        0.11870185973417831,
        -0.08849361840229399,
        0.06478405771700342,
        0.12817375555185054,
        0.013428934587933471,
        0.04516578110156508,
        0.09375239673473015,
        -0.05282391798408176,
        -0.006863596273805998,
        -0.05345785433476055,
        0.09204567513864952,
        0.07984509129055499,
        -0.021725512733789032,
        0.009224127736440511,
        0.06394516704474365,
        0.13949078893732664,
        -0.03886250483542952,
        -0.003951584419748342,
        0.08884031063777623,
        -0.0009852118347811996,
        0.08286199261279295,
        0.12526302902283426,
        0.03260422643706568,
        -0.023252157827170876,
        -0.02546976464181363,
        -0.07116443722094377,
        0.032707477764206225,
        0.047052626357245976,
        0.07006325139955846,
        -0.06910970997124853,
        0.05564570808330064,
        0.07064986058491751,
        -0.03099628709656896,
        0.15326677523460247,
        0.024749386799844043,
        -0.09582117443721676,
        0.05972829967419587,
        0.007285481330127212,
        -0.02967695087026941,
        0.09867460067382182,
        -0.027268821111244082,
        0.12743323883020974,
        -0.08786864948747976,
        -0.08116195467014689,
        -0.1308041115030335,
        -0.04656156017569413,
        -0.02073259288971027,
        0.038352393952421404,
        0.11347988235604983,
        0.06260716903490247,
        -0.07605038704328909,
        0.18131066582165403,
        0.07869655977330221,
        -0.11714182146191163,
        -0.20876628191242846,
        -0.021128781851913053,
        0.07419293026671843,
        -0.09305499691555706,
        -0.007666598654737845,
        -0.011656699891391377,
        0.017951366378679466,
        -0.06470692264327377,
        -0.030691773907046825,
        -0.06926792334564823,
        0.03302270038032928,
        0.10299709219161893
      ],
      [
        0.049178377496917655,
        -0.0370598083354178,
        0.006086308944358512,
        0.07400361685383397,
        0.03467317235583089,
        -0.07134771576170905,
        0.19598068689669276,
        -0.08004443953075978,
        0.10123945833069825,
        0.043517540082340996,
        -0.17632916003324456,
        -0.19988067358098435,
        0.10226744296890956,
        -0.17815977776220251,
        0.05781076628017445,
        0.0321131986165634,
        0.05603990776390246,
        -0.16598555570531187,
        0.04721336742821859,
        0.004414450649823182,
        0.12594538306963696,
        -0.04894165837091988,
        0.04444999865772177,
        0.10686751574928767,
        0.13891257822814995,
        -0.05354184457953057,
        0.02466220926668108,
        0.016392601981398188,
        0.18995623448316298,
        0.026004755598271177,
        0.08492207791813787,
        0.05213395513811225,
        0.061746474540279664,
        0.08361934606710163,
        -0.0036827877631675676,
        -0.04458355715727344,
        0.04780742132637295,
        0.024942813539833183,
        0.06786659710372811,
        -0.0012578868065046048,
        -0.152927526051416,
        -0.02055000596272234,
        -0.04831456035050993,
        -0.06621169102744329,
        -0.13900348711322427,
        -0.0210327289680921,
        0.08040852025663607,
        -0.009975061382071479,
        0.09179996966233575,
        0.09545450033437164,
        -0.06227531107896002,
        0.14539616054257568,
        0.02449265034490617,
        -0.07716689965633772,
        -0.10048785292201731,
        -0.04564932721522956,
        0.02340071935189114,
        0.04492105824804462,
        -0.009063295299742804,
        -0.017209945158299593,
        0.013327767617034707,
        0.08300160044080043,
        -0.02496157459933408,
        -0.17725220547160114,
        0.0170838351266024,
        0.1101431643550622,
        0.057413890569618375,
        0.09716202633190076,
        0.09442615313263837,
        0.09698315213458349,
        0.06685526161113894,
        0.04234385676024223,
        0.01940862964099778,
        0.047545616579264274,
        -0.11150841545072736,
        0.21144293142536993,
        -0.09096899024227402,
        -0.08946226078073413,
        -0.033785881527267476,
        -0.07094526485932713,
        0.038183954979146485,
        0.01583972498018862,
        -0.03824984356947326,
        0.07985648000487658,
        0.027314150128166022,
        -0.15050770723027995,
        0.06539256523212957,
        -0.08306646995177848,
        0.12437114208503734,
        0.20134066487671867,
        0.011817106248203008,
        0.032798155146111216,
        -0.12270937133831701,
        -0.08344617460197133,
        -0.1527422944479372,
        0.19245765355893124,
        -0.015157118174208138,
        -0.20210360299817307,
        0.03044333220421627,
        0.1282490778098112,
        0.08046313263397376,
        0.09621920273937937,
        0.0495360451889073,
        0.012814479216301017,
        0.10471265824819044,
        0.0342552396329598,
        -0.2643664595717936,
        0.11903779034594038,
        -0.02209276170678895,
        0.06105081920621527,
        0.2587690114729457,
        -0.0006427324453877993,
        -0.1057637757365239,
        -0.0632854983406984,
        0.15936888189226545,
        0.017753913270383836,
        0.11083377254945448,
        0.014401949952642169,
        0.009080505651074067,
        0.00007550831611527788,
        -0.13051095107070693,
        0.038358564219689986,
        0.0843068896937514,
        -0.09490790371363132,
        0.08909669857293354,
        0.0017901911623147565,
        0.1136078229853631,
        -0.1105909873746001
      ],
      [
        0.08347161344377645,
        -0.012292946706939657,
        0.17180547142165425,
        -0.02702662268968223,
        0.09622045200010701,
        -0.11789193438301512,
        -0.1354503055716632,
        -0.03268505735874114,
        0.01515055570662903,
        0.13323540358874394,
        -0.0838623391110688,
        -0.034331003212963125,
        0.15267801594623914,
        0.08740642435167476,
        0.009369944389868561,
        -0.01403417517863585,
        -0.07861557375162267,
        -0.024643199602842523,
        0.09859518562028935,
        -0.16048056951488696,
        0.18176980613196148,
        0.008949760309659606,
        -0.08973433400424263,
        -0.05253407230732882,
        -0.1013266097472021,
        0.08980004882899735,
        -0.20067079616737943,
        -0.0007600194494747235,
        -0.06872921157099719,
        -0.0052912677612788235,
        -0.027443197568924726,
        -0.13177139545538089,
        0.1305728227386172,
        0.015602378415387731,
        -0.1591525956792272,
        0.0037148282966227345,
        -0.1475608610531294,
        -0.02667048577785423,
        0.18065125219099307,
        0.0324776035784088,
        -0.03986770770019237,
        -0.11841682853205304,
        -0.10748591905108942,
        0.014073510063433249,
        -0.07757503610729463,
        -0.086581366292651,
        -0.13928450584148128,
        -0.06659741471978778,
        0.03967601611662969,
        -0.019974035490967417,
        -0.0265379956729051,
        -0.0876806996146392,
        -0.0805863650802831,
        -0.11820361418292233,
        -0.011734320665461123,
        0.040702811100298816,
        -0.2085705066977765,
        0.0595340767309373,
        -0.17070984706140876,
        -0.202992796491931,
        -0.04926962823003837,
        0.08423942156831023,
        0.09914772773454922,
        0.08002643422635275,
        0.025445072561231488,
        -0.08419092506202933,
        0.027846327480188914,
        -0.05856020606929376,
        0.1357604790216783,
        0.16017151124287737,
        -0.11713192928767413,
        0.05396351675722089,
        -0.1800817191311685,
        0.17528062323946877,
        -0.0782246144708425,
        0.009310057956990966,
        0.15732742992222068,
        -0.12774317651497444,
        0.1463653477165645,
        -0.09774600084198407,
        0.005685129159807416,
        0.08933763247140726,
        -0.0013013592543595026,
        -0.03111031192872363,
        0.13248994080027796,
        -0.006683924700045108,
        0.05323440169532791,
        0.10904479679417715,
        0.19063024560344818,
        -0.039879525477311356,
        -0.07544067059542708,
        -0.05593683216930467,
        -0.025420182333832298,
        0.17412372936470746,
        0.0879002118822315,
        -0.149303676213963,
        -0.0416041390534509,
        0.16839354272759022,
        -0.027113135689331894,
        -0.1736135610080363,
        -0.07699975066337068,
        0.04018825099575683,
        -0.1387794769954088,
        -0.04844289286703864,
        -0.014679751927039107,
        0.1058741243420794,
        -0.02406500503501318,
        -0.0412464645744271,
        -0.03592633360073129,
        0.011712954943336356,
        -0.03985993611963096,
        0.06590188305346377,
        -0.046030866533555016,
        0.04445989910329316,
        0.21686759008531545,
        -0.1253107516560662,
        -0.09561256790975849,
        0.06277553110118067,
        0.07688328676620694,
        0.11240278845383676,
        -0.0011004465641951328,
        -0.08608473510600383,
        0.06232099005726268,
        -0.09675984571882604,
        0.0061769195161505384,
        -0.02724452633041322,
        -0.006169261523764677,
        -0.04056159707029254
      ],
      [
        0.004626957068505807,
        -0.029536849391144898,
        0.016132871548475557,
        0.07139672825409112,
        0.10344353016886301,
        -0.20064337612483704,
        0.02907537182863837,
        0.03349603997122683,
        -0.009444508291713876,
        -0.14541202155190888,
        -0.12252925016948078,
        -0.0055901230421544915,
        -0.043233463917867074,
        -0.15089172596621145,
        0.10657066237832725,
        0.04819864148242356,
        -0.02074657971410112,
        -0.0004160984810265248,
        0.1183346151492404,
        -0.11765483052087992,
        0.040087343774617985,
        -0.23697084521811282,
        0.03996725554121557,
        -0.07111147791027388,
        -0.015810159769011557,
        0.0057096434201034385,
        -0.03787015777728875,
        0.04622975479257369,
        -0.0504618583897582,
        -0.061137282044676985,
        -0.16811478338322433,
        -0.021450302093445985,
        0.2071165355203723,
        -0.011318654174580146,
        0.08674479019261548,
        -0.03689133338021571,
        -0.14989935482356923,
        -0.03229258698101086,
        0.051232002349041135,
        0.18527937382429893,
        -0.0393826300480928,
        -0.04697794874966163,
        0.04231462980911982,
        0.03832630248230026,
        0.014314269965697375,
        0.1529159722850629,
        -0.12162461718647524,
        -0.03218020032685292,
        -0.025290248361024826,
        0.01877009748962091,
        -0.049187866424003794,
        -0.019849866620788394,
        0.04128372186331169,
        -0.04674140194505248,
        0.03193065315390987,
        0.17530602666078618,
        -0.07909566790598328,
        0.014934784213504413,
        -0.07975397188054896,
        -0.02492034823628107,
        0.17012503828560407,
        0.04834552743838152,
        -0.10288416360976566,
        -0.020825426892228695,
        -0.19123959401586352,
        -0.09492092678018578,
        0.19657115608787035,
        0.07314452043387515,
        0.07699890927302934,
        -0.2016858046946449,
        0.06449143859343458,
        -0.07955665335148573,
        0.03266113231782128,
        -0.09558942748043936,
        -0.0674402619851671,
        0.0119072656532072,
        -0.08776298401199761,
        -0.058451457116536945,
        0.04174725247461913,
        -0.2515194041222692,
        0.0400894046887405,
        -0.018200340222003758,
        0.02626369844496663,
        0.07715011270857813,
        0.020411944257858243,
        0.0008366921704812498,
        -0.09545627291724383,
        -0.05543550587411666,
        0.05375223009601506,
        -0.03908830937948649,
        -0.05148628686811545,
        -0.09198451649568677,
        -0.22309444924171984,
        -0.04964269933613907,
        0.02644836118848307,
        0.1391666795705256,
        0.16839127602985504,
        -0.039312474651069906,
        -0.02887858859001156,
        -0.07828146107384197,
        0.22332430543762527,
        0.14749577524221816,
        -0.0759799866525341,
        0.18193700188401546,
        -0.10398833529072135,
        -0.05087658897267976,
        0.07572503467573662,
        -0.07254937331735332,
        0.11956678852442378,
        -0.06871838630117995,
        0.17342014562082197,
        -0.05830392422733279,
        -0.002477306969915972,
        -0.10906686468377946,
        -0.09192109184443154,
        -0.11025838133871196,
        0.1542742774423666,
        0.15564887715360004,
        -0.07213956357275766,
        0.13957547420213573,
        0.011942751064718472,
        0.15879832933210133,
        0.2310735689026095,
        -0.12618238805373042,
        -0.002130112855985109,
        -0.05568904394711697,
        -0.16906715541498665,
        0.015624163715943147
      ],
      [
        -0.08152438781856507,
        0.0676655167707973,
        0.08675223937738648,
        0.09722854526494618,
        0.049827100486594625,
        -0.12224626809273999,
        -0.10709886966537223,
        -0.04170822562575159,
        0.0069618642218502395,
        0.07631550177719859,
        -0.17328021839996516,
        0.04812270338033967,
        -0.006568643509896415,
        -0.02738838239819266,
        -0.016977128164559725,
        -0.11152806774362885,
        0.08061121387281263,
        0.029064077114285054,
        -0.02382873449130088,
        -0.14088376245368833,
        0.11305798541408828,
        0.08566865322443366,
        0.10020512366352254,
        -0.09899917455097769,
        0.29818111708887135,
        0.06336150669393083,
        0.0767224797917106,
        0.08581129066142443,
        0.0722200959511661,
        0.046420257763156586,
        -0.08141342109169629,
        -0.10883433769979266,
        0.14764520224648675,
        -0.003194666519080634,
        0.10795554161112426,
        -0.1403445361791533,
        0.05055891628315915,
        -0.03004975914501679,
        -0.023163760401726796,
        -0.08985303803108635,
        0.12267465801411218,
        -0.10385061164856917,
        0.0063706892698525055,
        0.1362107004148197,
        0.0575503554114894,
        0.13418707780843994,
        -0.035874408475776644,
        0.016781039986282196,
        0.035873345687415674,
        -0.028265080962811495,
        -0.04706471734173962,
        -0.1415717186794258,
        0.07842491908846018,
        0.14667923760945042,
        -0.005503070284919096,
        0.21158753005808922,
        -0.001584687392901492,
        -0.1253937020816989,
        -0.012436272737656474,
        -0.136283066765617,
        -0.15682552711777653,
        -0.0008102775129858466,
        0.10680824295051324,
        0.039544377488190105,
        0.0759214171915125,
        0.09092777314410229,
        -0.015014113259744433,
        0.023258312947625166,
        -0.13607803339647861,
        0.07221863896492137,
        -0.03717912673024604,
        0.01082524649866368,
        -0.05364605853025559,
        -0.11883988976512787,
        -0.008461910753620924,
        0.19123707861336794,
        0.2920659120690548,
        0.04329068539423737,
        0.16729835410475627,
        -0.028791818287838965,
        0.02973150266664368,
        -0.05059524420989495,
        -0.11619415152596763,
        0.01273747782282738,
        0.08217633469507045,
        -0.020976869274573942,
        -0.11201953334159055,
        0.0418160810664057,
        0.026382264619419234,
        -0.11193937580915175,
        -0.07643427671743819,
        -0.09528756044365633,
        0.07259400133774083,
        -0.20741249102418657,
        -0.028338615497654467,
        -0.05223076416376155,
        -0.09103359135771845,
        0.08975571767597827,
        0.19515186123245892,
        -0.15663717808672345,
        -0.11049734392614637,
        0.07811351517972764,
        -0.02763731620153698,
        0.05916011017466028,
        0.05694339333355848,
        -0.028195724285266704,
        -0.14800254348036915,
        0.02679566257641853,
        0.041985897930970455,
        0.1123781899540042,
        0.16894076536887148,
        -0.07171998442916215,
        0.12151102383517763,
        0.06730514596452833,
        0.24625752972837872,
        0.03061826663288327,
        -0.11837592953660886,
        0.01745182253089468,
        0.0869727950409012,
        0.0029267231996476253,
        0.08346224189379825,
        0.03376038546388031,
        0.14142252546871872,
        0.09275883550608703,
        -0.09578016630477783,
        -0.04522274069481025,
        0.02307315862649696,
        0.09714353828659074
      ],
      [
        0.14056895463487362,
        -0.010548403985489839,
        0.10113890541672022,
        0.0575857335828002,
        -0.05863104445934344,
        0.002857777061593725,
        -0.09958536339767061,
        -0.2353177606996373,
        0.16171452246524104,
        -0.08629997418799532,
        -0.12796252387128954,
        0.04861140219321835,
        0.04217955694076364,
        -0.04366613086372157,
        0.14168822501483966,
        0.08884259834741,
        -0.09142404343476772,
        -0.04611696084297046,
        0.07611583545463609,
        -0.03507089842591908,
        -0.058299408058570354,
        -0.07334831946187952,
        -0.040215136572385984,
        0.03205970013139682,
        0.0701991378471805,
        -0.005224346263651336,
        -0.0841015403518104,
        0.06426768171505876,
        -0.0259750244098142,
        0.024737522960406506,
        -0.028095497823961337,
        -0.13406599967011298,
        -0.12224832902719651,
        0.051581891175625394,
        0.13943150160630374,
        0.01720437483066281,
        -0.10120411682355739,
        0.13056394482849135,
        0.1154461216504719,
        0.04676504945818153,
        -0.028888442687509487,
        -0.17288401806826603,
        0.04261576777227747,
        -0.017807102265996504,
        0.17727102309477974,
        0.1296705934139314,
        -0.01364465871433786,
        -0.06702891742666202,
        -0.18948830700826047,
        -0.09893311717615969,
        0.1619963142769362,
        -0.10341447351240832,
        0.16009171612459064,
        -0.04073985383289779,
        -0.06388473973627787,
        -0.033539085513628795,
        0.016194306616370103,
        -0.10063553671142711,
        0.12683319813279847,
        0.03248679611935787,
        -0.015965248138268984,
        0.14249541955882283,
        0.15306202568510074,
        -0.1977042376544941,
        -0.009107899463296933,
        -0.0922224546021946,
        0.005933993677852151,
        -0.1558154970738862,
        -0.026752026823842662,
        -0.004412873353490456,
        0.05728985651296106,
        -0.10261534699509307,
        0.22118963161568203,
        -0.2200650041883215,
        -0.08540764177389337,
        -0.19652269636374012,
        0.07619048381402224,
        -0.07355851137984508,
        0.035339909545261165,
        -0.14607311363438372,
        0.118672708582252,
        -0.0733696660250545,
        -0.060305939844870156,
        0.014947980536924603,
        0.10956329121622468,
        0.0008326834952190027,
        0.12686302622221526,
        -0.11780125944623367,
        -0.07254758245017363,
        -0.12005647653032445,
        -0.1306640585563813,
        -0.11819683067257392,
        0.10463787534971772,
        -0.11153377663591865,
        0.18111888778997629,
        0.05349044262826139,
        -0.059237866866524734,
        -0.14172589917836245,
        -0.11365684450083913,
        0.05389607659849022,
        0.04610737334963887,
        -0.21907745576214252,
        0.08939206697823193,
        0.08812600137375082,
        -0.04272030807725406,
        0.11340249741086669,
        0.028927370355029357,
        -0.10065263069922627,
        -0.032109358485967854,
        0.010356238657880944,
        -0.053078753404906504,
        0.10255752626198507,
        -0.012121614181583187,
        0.047815832060483274,
        -0.07665818716556318,
        -0.03192519756493545,
        -0.08910778060701277,
        0.03311333743019079,
        0.017050538055633384,
        0.02759977529844947,
        -0.021109436038220495,
        -0.15818073085993703,
        0.023765801268991086,
        -0.04380039408649118,
        0.017550214985559594,
        0.11046376397149509,
        0.036657288079611244,
        -0.05339102188459692
      ],
      [
        0.11286520315106899,
        -0.11461267685579617,
        0.0057429341178517924,
        0.12166806247235158,
        -0.04999549683983999,
        -0.09656332877745312,
        0.17164447098319313,
        0.08165906422291636,
        0.10568537089957142,
        -0.09570057282241133,
        -0.04896198390730119,
        0.05656759940205156,
        0.011268556727976912,
        0.06537319270307432,
        0.026195544380302308,
        -0.13102149579666805,
        0.1467039081866595,
        0.07554381796721486,
        -0.017725602660718633,
        0.08891788208428174,
        -0.24434855063504532,
        -0.04527178990283401,
        -0.08276175549643125,
        0.09202908518289034,
        0.13333765852528418,
        -0.07660858685122605,
        -0.010408297240204334,
        0.1567107849408616,
        -0.16235823762445584,
        0.13654140818068713,
        -0.08404233423699586,
        -0.08874294528423161,
        0.14557942643447203,
        0.004366965731613955,
        0.15295846773108812,
        -0.010944379882978441,
        0.014355343661884986,
        -0.007505548513239568,
        0.0865378139530792,
        0.06006027332528835,
        0.02432516789414557,
        -0.2403368936707115,
        0.004449934305806853,
        0.07304879023828809,
        0.03011030222290119,
        0.13756411525393433,
        0.11798809884791303,
        0.11647703789787432,
        -0.09044114918107109,
        -0.049987429398673136,
        0.059802686729523866,
        -0.07941494589137046,
        -0.05573706474939725,
        0.037139046779949836,
        0.07981838545723831,
        0.11496773366603777,
        -0.02782596459279827,
        -0.053304169180214835,
        -0.15903977635508548,
        -0.21016059325080402,
        -0.09135159299406426,
        0.10840738232407596,
        0.09775431832860772,
        -0.12091416599774567,
        0.08690337626605055,
        -0.01542008499737903,
        -0.10272330461593632,
        0.09437451738897032,
        0.10955677747766325,
        -0.18484595690320968,
        -0.008018833048354622,
        0.08679524670969015,
        -0.07529875994016723,
        0.24216972081030205,
        0.13588040545585134,
        0.02241988083908626,
        0.06351676279317514,
        0.03878583871824886,
        0.24318331023276538,
        0.011327565970976035,
        0.005473800584382338,
        0.16954065017170422,
        0.022401205727414608,
        -0.04743597488865234,
        -0.057288894064284085,
        -0.05631173340092593,
        0.22257334701079312,
        0.1495542234444497,
        0.09547626480239296,
        0.16417032965195585,
        -0.025997600629393873,
        0.033458284933455734,
        -0.13621736880490148,
        -0.042671280840626165,
        0.020920897104285047,
        -0.12628569863636654,
        0.0784756716636429,
        0.13778426259063756,
        -0.03708883681107107,
        0.01959926375457674,
        -0.1184304257397597,
        0.05467351292659879,
        -0.14092203220385213,
        -0.02043734184851114,
        -0.06840809050015391,
        0.1154599401829949,
        0.08127828836116345,
        0.1118475891193329,
        0.004328538387526123,
        -0.13831745490208316,
        0.06588400927467122,
        0.0658912368175017,
        -0.006941680765567159,
        -0.041960550574208534,
        -0.03087556852769692,
        -0.062793121755617,
        0.04007815562927642,
        0.0016367279618508589,
        -0.002697705372351449,
        0.1433262945176604,
        0.06772661067580465,
        0.1006873813783732,
        -0.01836038577588439,
        0.10831860449364876,
        -0.007304307209166454,
        0.06141982130174768,
        -0.06295392102244177,
        0.05462423267950463
      ],
      [
        0.18080916324866927,
        0.02733750764408607,
        -0.007984319587047501,
        -0.1383934361449365,
        0.07178146058645389,
        -0.18322400873176659,
        -0.17946623793976185,
        0.023698164491896042,
        0.03729846225702309,
        0.060421278156665766,
        -0.1181027203371515,
        -0.21189506547564008,
        0.0009745168996379149,
        0.0017583560998520884,
        -0.006061552238751144,
        0.07685873692267775,
        -0.06364930807266762,
        -0.09641577099057361,
        0.035135826038805405,
        -0.04492669963324454,
        0.006158768945992708,
        -0.17139163407121272,
        0.16083868382423588,
        -0.196653246597523,
        0.052817357454662345,
        -0.017500379757486455,
        -0.12344597246394942,
        0.007943870326913228,
        0.18733123303701277,
        -0.14844653394954774,
        0.002903429985918416,
        0.1112392252000102,
        0.20964441498439948,
        0.09132529891167483,
        0.10770965352833257,
        0.23838902048188793,
        -0.01778422434650446,
        0.05462009355870488,
        0.020036648560065786,
        -0.04639721791244863,
        -0.09228807964490113,
        -0.13775898160030414,
        0.03762652149073506,
        0.18961392167934976,
        0.1538576180359081,
        0.10981387813192973,
        -0.010581276288030636,
        0.2488789465232078,
        -0.007587205722817829,
        -0.015594302302059968,
        0.03436551064619935,
        0.021137785600162582,
        -0.036860368499909923,
        -0.06663576456425949,
        0.09091698425067918,
        0.027806377818577314,
        0.010435350902999834,
        -0.07777142156060406,
        -0.03367463865409326,
        -0.03915207557621926,
        -0.09360718285419764,
        -0.2530368391568911,
        0.08849888548512519,
        0.04808524731695392,
        -0.04797419993758732,
        -0.05878590676238323,
        -0.08144365885217718,
        -0.10937597876840414,
        0.015523927206609427,
        0.09905365825213223,
        0.005360984453980824,
        0.03646491565635653,
        -0.05603692874345205,
        0.03263556720918154,
        0.0787442017235295,
        -0.014500615073764116,
        -0.009030083543739431,
        -0.0355283772493206,
        0.0003456898006648879,
        0.022120995174348065,
        0.09797974247759685,
        0.054093920226492634,
        -0.17007793837968146,
        0.06588305812545142,
        0.04676870719653889,
        0.12724044119099567,
        0.043986558704170425,
        0.09389453801582048,
        0.06140866059258834,
        -0.13482729140909164,
        0.0837391503156035,
        -0.09334793707960447,
        -0.1071642541969923,
        -0.05448781740859234,
        -0.12495047700582172,
        0.08089793806978275,
        0.1020729796247515,
        0.1131778614650946,
        -0.17298048732032104,
        -0.15730963649030266,
        0.015525553757312257,
        0.1402365687158087,
        -0.24954420510970385,
        -0.32656458624980383,
        -0.1907412803242158,
        0.21319553734534594,
        -0.043949442621046816,
        0.23035011912462428,
        0.07606026664837583,
        0.05871248484339798,
        -0.06928349871761183,
        -0.11658265613832008,
        0.064781693488589,
        0.07172522922681947,
        0.08357711325281829,
        -0.01181113958442743,
        -0.012696950858255302,
        0.08004301445405157,
        -0.16214035985796055,
        -0.12383513844314674,
        -0.055388822256648595,
        0.051832849238812574,
        -0.08154160112347811,
        0.08541116248473538,
        -0.03747828960047801,
        -0.1003165353135211,
        -0.0486720538412788,
        -0.04203469760741318
      ],
      [
        0.08502623799610927,
        -0.112980273868931,
        0.07757986284937841,
        0.01358107711024057,
        -0.12063730525959059,
        0.11220742038073808,
        0.07564499226543968,
        0.049881225233381205,
        0.043464140456708426,
        -0.0765816946435134,
        0.12397160255372634,
        0.027864522654452325,
        -0.14542567259597344,
        0.17350464990353234,
        0.018313178422107602,
        -0.009524277557602002,
        -0.06156637191748102,
        -0.0014956431278084319,
        0.08356699935257295,
        0.08205637851654984,
        0.09471118699110707,
        -0.0383051404235366,
        0.0004104545549867684,
        -0.04005950615584031,
        -0.07790997749128281,
        0.1071004322472753,
        0.06523386432613598,
        -0.0018656011778111564,
        0.043570076169526545,
        0.03228025294205926,
        0.027835123736177858,
        -0.07241687890727182,
        0.01873145521890043,
